<?xml version="1.0"?>
<opencv_storage>
<opencv_ml_svm>
  <format>3</format>
  <svmType>C_SVC</svmType>
  <kernel>
    <type>RBF</type>
    <gamma>0.5</gamma></kernel>
  <C>1.</C>
  <term_criteria><epsilon>1.1920928955078125e-07</epsilon>
    <iterations>1000</iterations></term_criteria>
  <var_count>7</var_count>
  <class_count>2</class_count>
  <class_labels type_id="opencv-matrix">
    <rows>2</rows>
    <cols>1</cols>
    <dt>i</dt>
    <data>
      0 1</data></class_labels>
  <sv_total>103</sv_total>
  <support_vectors>
    <_>
      17. 85. 1445. 0.200000003 1446. 1081. 1.</_>
    <_>
      148. 128. 18944. 1.15625 983. 1036. 1.</_>
    <_>
      134. 177. 23718. 0.757062137 1504. 994. 1.</_>
    <_>
      100. 91. 9100. 1.09890115 1542. 992. 1.</_>
    <_>
      17. 86. 1462. 0.197674423 1446. 992. 1.</_>
    <_>
      33. 96. 3168. 0.34375 190. 928. 1.</_>
    <_>
      16. 84. 1344. 0.190476194 1447. 905. 1.</_>
    <_>
      89. 92. 8188. 0.967391312 1553. 901. 1.</_>
    <_>
      40. 35. 1400. 1.14285719 1504. 860. 1.</_>
    <_>
      16. 237. 3792. 0.0675105453 1385. 830. 1.</_>
    <_>
      34. 212. 7208. 0.160377353 1431. 804. 1.</_>
    <_>
      137. 100. 13700. 1.37 559. 768. 1.</_>
    <_>
      133. 90. 11970. 1.47777772 560. 679. 1.</_>
    <_>
      134. 91. 12194. 1.4725275 559. 586. 1.</_>
    <_>
      199. 146. 29054. 1.36301374 75. 518. 1.</_>
    <_>
      136. 91. 12376. 1.49450552 558. 492. 1.</_>
    <_>
      19. 58. 1102. 0.327586204 1377. 1047. 1.</_>
    <_>
      25. 79. 1975. 0.316455692 1071. 1039. 1.</_>
    <_>
      28. 104. 2912. 0.269230783 648. 1035. 1.</_>
    <_>
      27. 103. 2781. 0.262135923 612. 1034. 1.</_>
    <_>
      26. 101. 2626. 0.257425755 577. 1034. 1.</_>
    <_>
      59. 155. 9145. 0.380645156 1727. 1011. 1.</_>
    <_>
      56. 151. 8456. 0.370860934 1651. 1011. 1.</_>
    <_>
      108. 175. 18900. 0.617142856 1687. 1000. 1.</_>
    <_>
      140. 184. 25760. 0.760869563 1563. 995. 1.</_>
    <_>
      225. 343. 77175. 0.655976653 1252. 994. 1.</_>
    <_>
      181. 194. 35114. 0.932989717 1232. 991. 1.</_>
    <_>
      325. 187. 60775. 1.73796797 1652. 951. 1.</_>
    <_>
      227. 359. 81493. 0.632312 1185. 884. 1.</_>
    <_>
      27. 45. 1215. 0.600000024 185. 832. 1.</_>
    <_>
      154. 148. 22792. 1.04054058 131. 745. 1.</_>
    <_>
      55. 62. 3410. 0.887096763 1322. 699. 1.</_>
    <_>
      68. 71. 4828. 0.957746506 1675. 664. 1.</_>
    <_>
      61. 160. 9760. 0.381249994 2147. 647. 1.</_>
    <_>
      55. 65. 3575. 0.846153855 1322. 638. 1.</_>
    <_>
      60. 128. 7680. 0.46875 1392. 630. 1.</_>
    <_>
      271. 233. 63143. 1.16309011 1252. 595. 1.</_>
    <_>
      71. 142. 10082. 0.5 1765. 586. 1.</_>
    <_>
      365. 223. 81395. 1.63677132 1553. 563. 1.</_>
    <_>
      58. 56. 3248. 1.03571427 568. 462. 1.</_>
    <_>
      44. 111. 4884. 0.396396399 615. 419. 1.</_>
    <_>
      77. 96. 7392. 0.802083313 535. 418. 1.</_>
    <_>
      46. 84. 3864. 0.547619045 860. 401. 1.</_>
    <_>
      51. 51. 2601. 1. 1255. 394. 1.</_>
    <_>
      99. 123. 12177. 0.804878056 1420. 361. 1.</_>
    <_>
      110. 125. 13750. 0.879999995 1321. 360. 1.</_>
    <_>
      69. 216. 14904. 0.319444448 655. 335. 1.</_>
    <_>
      65. 31. 2015. 2.0967741 895. 318. 1.</_>
    <_>
      38. 33. 1254. 1.15151513 618. 276. 1.</_>
    <_>
      24. 49. 1176. 0.489795923 1336. 273. 1.</_>
    <_>
      44. 61. 2684. 0.72131145 1263. 265. 1.</_>
    <_>
      29. 61. 1769. 0.475409836 663. 247. 1.</_>
    <_>
      18. 34. 612. 0.529411793 619. 242. 1.</_>
    <_>
      19. 67. 1273. 0.283582091 595. 241. 1.</_>
    <_>
      32. 62. 1984. 0.516129017 537. 241. 1.</_>
    <_>
      34. 63. 2142. 0.539682567 348. 240. 1.</_>
    <_>
      99. 88. 8712. 1.125 337. 240. 1.</_>
    <_>
      68. 47. 3196. 1.44680846 579. 621. 1.</_>
    <_>
      17. 137. 2329. 0.124087594 1002. 574. 1.</_>
    <_>
      95. 161. 15295. 0.590062141 634. 573. 1.</_>
    <_>
      17. 157. 2669. 0.108280256 897. 554. 1.</_>
    <_>
      86. 53. 4558. 1.62264156 521. 548. 1.</_>
    <_>
      187. 172. 32164. 1.08720934 1290. 547. 1.</_>
    <_>
      168. 162. 27216. 1.03703701 1185. 547. 1.</_>
    <_>
      96. 75. 7200. 1.27999997 1297. 546. 1.</_>
    <_>
      209. 195. 40755. 1.07179487 206. 536. 1.</_>
    <_>
      82. 22. 1804. 3.72727275 1838. 502. 1.</_>
    <_>
      168. 125. 21000. 1.34399998 561. 497. 1.</_>
    <_>
      53. 56. 2968. 0.946428597 0. 487. 1.</_>
    <_>
      99. 68. 6732. 1.45588231 1293. 478. 1.</_>
    <_>
      100. 69. 6900. 1.44927537 1186. 477. 1.</_>
    <_>
      480. 271. 130080. 1.7712177 198. 475. 1.</_>
    <_>
      420. 249. 104580. 1.68674695 1144. 472. 1.</_>
    <_>
      52. 40. 2080. 1.29999995 1776. 362. 1.</_>
    <_>
      53. 83. 4399. 0.638554215 1833. 361. 1.</_>
    <_>
      123. 125. 15375. 0.984000027 1769. 324. 1.</_>
    <_>
      86. 88. 7568. 0.977272749 1334. 324. 1.</_>
    <_>
      82. 59. 4838. 1.38983047 1334. 324. 1.</_>
    <_>
      83. 59. 4897. 1.40677965 1246. 324. 1.</_>
    <_>
      184. 101. 18584. 1.82178223 1156. 324. 1.</_>
    <_>
      37. 28. 1036. 1.32142854 109. 54. 1.</_>
    <_>
      60. 82. 4920. 0.731707335 129. 50. 1.</_>
    <_>
      175. 84. 14700. 2.08333325 0. 50. 1.</_>
    <_>
      61. 31. 1891. 1.96774197 1690. 1186. 1.</_>
    <_>
      67. 48. 3216. 1.39583337 420. 1172. 1.</_>
    <_>
      102. 59. 6018. 1.72881353 1557. 1169. 1.</_>
    <_>
      61. 79. 4819. 0.772151887 1808. 1091. 1.</_>
    <_>
      111. 88. 9768. 1.26136363 0. 990. 1.</_>
    <_>
      140. 79. 11060. 1.77215195 1575. 944. 1.</_>
    <_>
      77. 85. 6545. 0.905882359 2384. 937. 1.</_>
    <_>
      54. 36. 1944. 1.5 1875. 903. 1.</_>
    <_>
      93. 72. 6696. 1.29166663 61. 893. 1.</_>
    <_>
      77. 61. 4697. 1.26229513 256. 876. 1.</_>
    <_>
      41. 117. 4797. 0.350427359 1436. 1113. 1.</_>
    <_>
      74. 153. 11322. 0.483660132 2486. 1076. 1.</_>
    <_>
      49. 183. 8967. 0.267759562 856. 1045. 1.</_>
    <_>
      59. 155. 9145. 0.380645156 1727. 1011. 1.</_>
    <_>
      56. 151. 8456. 0.370860934 1651. 1011. 1.</_>
    <_>
      60. 128. 7680. 0.46875 1392. 630. 1.</_>
    <_>
      71. 142. 10082. 0.5 1765. 586. 1.</_>
    <_>
      28. 104. 2912. 0.269230783 648. 1035. 0.900000036</_>
    <_>
      27. 103. 2781. 0.262135923 612. 1034. 0.900000036</_>
    <_>
      158. 236. 37288. 0.669491529 1252. 994. 0.900000036</_></support_vectors>
  <decision_functions>
    <_>
      <sv_count>103</sv_count>
      <rho>-0.87654320987654322</rho>
      <alpha>
        0.12345677614212036 0.12345677614212036 0.12345677614212036
        0.12345677614212036 0.12345677614212036 0.12345677614212036
        0.12345677614212036 0.12345677614212036 0.12345677614212036
        0.12345677614212036 0.12345677614212036 0.12345677614212036
        0.12345677614212036 0.12345677614212036 0.12345677614212036
        0.12345677614212036 0.12345677614212036 0.12345677614212036
        0.12345677614212036 0.12345677614212036 0.12345677614212036
        0.12345677614212036 0.12345677614212036 0.12345677614212036
        0.12345677614212036 0.12345677614212036 0.12345677614212036
        0.12345677614212036 0.12345677614212036 0.12345677614212036
        0.12345677614212036 0.12345677614212036 0.12345677614212036
        0.12345677614212036 0.12345677614212036 0.12345677614212036
        0.12345677614212036 0.12345677614212036 0.12345677614212036
        0.12345677614212036 0.12345677614212036 0.12345677614212036
        0.12345677614212036 0.12345677614212036 0.12345677614212036
        0.12345677614212036 0.12345677614212036 0.12345677614212036
        0.12345677614212036 1. 1. 0.12345677614212036 1. 1.
        0.12345677614212036 0.12345677614212036 0.12345677614212036
        0.12345677614212036 0.12345677614212036 0.12345683574676514
        0.12345683574676514 0.12345677614212036 0.12345677614212036
        0.12345677614212036 0.12345677614212036 0.12345677614212036
        0.12345677614212036 0.12345683574676514 0.12345683574676514
        0.12345683574676514 0.12345683574676514 0.12345683574676514
        0.12345683574676514 0.12345683574676514 0.12345683574676514
        0.12345683574676514 1. 0.12345683574676514 1.
        0.12345683574676514 0.12345683574676514 0.12345683574676514
        0.12345683574676514 0.12345683574676514 0.12345683574676514
        0.12345683574676514 0.12345677614212036 -1. -1. -1. -1. -1. -1.
        -1. -1. -1. -1. -1. -1. -1. -1. -1. -1.</alpha>
      <index>
        57 68 67 66 65 64 63 62 61 60 59 58 69 56 55 54 53 52 51 50 49
        48 47 46 80 92 91 90 89 88 87 86 85 84 83 82 1 79 78 77 76 75 74
        73 72 71 70 13 23 22 21 20 19 18 17 16 15 14 24 12 3 11 10 9 8 7
        6 5 4 2 43 42 41 40 39 38 37 36 35 34 33 32 31 30 29 27 0 97 96
        102 98 99 100 101 45 95 94 93 81 25 26 28 44</index></_></decision_functions></opencv_ml_svm>
</opencv_storage>
